0
0.1
0.0
0.0
0.0
0.0
0.0
0.0
0.0
0.6000000000000001
1.2
0.20000000000000007
-0.19999999999999996
-0.20000000000000007
-0.8
5.551115123125783e-17
0.6000000000000001
-1.0
-0.8
-1.7999999999999998
-0.20000000000000007
-0.2
0.39999999999999997
-0.4
-0.4
-0.4
-0.4
-0.2
-0.2
0.0
0.0
0.0
0.0
0.0
0.0
0.0
-0.6000000000000001
-0.6000000000000001
0.19999999999999996
-1.0
-0.8
0.19999999999999996
-1.4
0.6000000000000001
-0.6000000000000001
0.20000000000000007
1.0
-2.1999999999999997
0.4000000000000001
2.1999999999999997
1.4
1.2
-0.20000000000000007
0.19999999999999996
-0.4000000000000001
-0.2
0.0
0.0
0.0
0.0
0.0
0.0
0.0
0.0
0.0
-0.4
-0.4
-0.6000000000000001
1.0
0.8
-0.8
-0.6000000000000001
-0.20000000000000007
-0.8
1.4
-1.7999999999999998
-1.4
-0.39999999999999997
-1.2
-1.7999999999999998
0.39999999999999997
5.551115123125783e-17
-2.4
-1.5999999999999999
-0.6000000000000001
0.4
-0.2
0.0
0.0
0.0
0.0
0.0
0.0
0.0
0.0
-0.4
-0.4
0.6000000000000001
0.20000000000000007
1.2
1.4
-0.8
1.4
1.4
-1.5999999999999999
-1.2
0.20000000000000007
-0.20000000000000007
0.19999999999999996
-1.4
-0.8
0.20000000000000007
-1.5999999999999999
0.6000000000000001
0.4000000000000001
0.0
0.4000000000000001
0.2
0.0
0.0
0.0
0.0
0.0
0.0
0.0
0.0
0.6000000000000001
-0.2
-0.2
2.1999999999999997
1.9999999999999998
-1.2
-0.4000000000000001
1.0
2.8000000000000003
0.0
0.4000000000000001
-1.5999999999999999
-0.20000000000000007
-3.0000000000000004
0.20000000000000007
0.20000000000000007
1.2
-0.39999999999999997
0.6000000000000001
-0.4
0.0
0.4
0.0
0.0
0.0
0.0
0.0
0.0
0.0
0.0
0.0
-0.2
-0.4
2.6
-0.20000000000000007
1.7999999999999998
0.8
3.600000000000001
3.2000000000000006
1.2
-0.20000000000000007
-1.4
-0.6000000000000001
1.2
-1.2
1.2
0.4000000000000001
0.20000000000000007
0.0
0.0
0.0
0.0
0.0
0.0
0.0
0.0
0.0
0.0
0.0
0.0
0.0
0.0
0.0
0.8
1.2
1.4
1.0
0.4000000000000001
5.551115123125783e-17
2.1999999999999997
-0.8
-0.8
0.8
-0.6000000000000001
-0.8
1.2
0.8
1.0
-0.4
0.0
0.2
0.0
0.0
0.0
0.0
0.0
0.0
0.0
0.0
0.0
0.0
0.2
-1.4
0.6000000000000001
1.2
0.20000000000000007
-0.19999999999999996
-1.0
1.0
1.7999999999999998
5.551115123125783e-17
1.0
-2.1999999999999997
0.20000000000000007
-0.4000000000000001
0.8
2.4
-0.4
-0.2
-0.2
0.2
0.0
0.0
0.0
0.0
0.0
0.0
0.0
0.0
0.0
0.0
-0.2
-0.4000000000000001
-0.6000000000000001
0.4000000000000001
-0.4000000000000001
-0.39999999999999997
5.551115123125783e-17
2.4
-0.19999999999999996
-1.0
0.39999999999999997
-0.8
-1.4
-2.4
-1.4
-0.4000000000000001
-0.6000000000000001
0.0
-0.4
-0.2
0.0
0.0
0.0
0.0
0.0
0.0
0.0
0.0
0.0
0.0
-1.0
-0.8
-1.0
-0.4
-2.8000000000000003
-1.7999999999999998
0.6000000000000001
1.9999999999999998
1.4
-0.6000000000000001
1.5999999999999999
1.2
-1.5999999999999999
-2.4
-0.6000000000000001
-0.8
-0.6000000000000001
-0.6000000000000001
-0.4
-0.2
0.0
0.0
0.0
0.0
0.0
0.0
0.0
0.0
0.0
0.0
-0.6000000000000001
-0.6000000000000001
-1.0
-1.5999999999999999
-1.2
-1.9999999999999998
0.39999999999999997
0.8
-0.8
-2.1999999999999997
0.4000000000000001
-1.4
-3.0000000000000004
-1.7999999999999998
-0.6000000000000001
-0.8
-0.8
-0.2
-0.6000000000000001
-0.2
0.0
0.0
0.0
0.0
0.0
0.0
0.0
0.0
0.0
-0.6000000000000001
-0.8
-0.4000000000000001
-1.4
-0.6000000000000001
0.39999999999999997
-0.4000000000000001
0.8
2.4
-0.8
1.4
0.6
1.5999999999999999
0.6000000000000001
-2.8000000000000003
-1.2
-3.0000000000000004
-0.6000000000000001
0.2
-0.6000000000000001
-0.2
0.0
0.0
0.0
0.0
0.0
0.0
0.0
0.0
0.0
-0.6000000000000001
-0.2
-0.6000000000000001
-1.2
1.0
-0.4000000000000001
1.2
1.4
-0.6000000000000001
1.0
-1.7999999999999998
0.8
5.551115123125783e-17
-0.39999999999999997
1.9999999999999998
-1.4
-1.4
-0.8
-5.551115123125783e-17
-0.8
-0.2
0.0
0.0
0.0
0.0
0.0
0.0
0.0
0.0
0.0
-0.6000000000000001
0.0
-0.2
-0.8
1.0
-5.551115123125783e-17
0.4000000000000001
2.8000000000000003
2.1999999999999997
0.8
-0.8
-1.0
-0.39999999999999997
-0.8
0.6000000000000001
-5.551115123125783e-17
-5.551115123125783e-17
0.2
0.39999999999999997
-0.8
0.0
0.0
0.0
0.0
0.0
0.0
0.0
0.0
0.0
0.0
0.0
-0.4
-0.19999999999999996
-0.8
-5.551115123125783e-17
-1.7999999999999998
-1.7999999999999998
1.2
2.4
-0.4000000000000001
-2.4
-0.20000000000000007
-0.4000000000000001
-3.2000000000000006
0.6
0.2
0.2
-0.6000000000000001
-1.2
-1.0
-0.2
0.0
0.0
0.0
0.0
0.0
0.0
0.0
0.0
-0.2
0.0
0.2
5.551115123125783e-17
0.6000000000000001
1.0
-0.19999999999999996
1.2
-0.39999999999999997
1.0
0.8
-3.400000000000001
-0.8
0.6
-1.2
-0.20000000000000007
0.8
1.4
-0.20000000000000007
-0.6000000000000001
-0.2
-0.4
-0.2
0.0
0.0
0.0
0.0
0.0
0.0
0.0
0.0
0.0
-0.2
0.4
1.9999999999999998
0.8
1.2
-0.4000000000000001
0.20000000000000007
0.4000000000000001
-1.0
-0.20000000000000007
-2.6
1.2
-0.4000000000000001
0.6000000000000001
1.7999999999999998
1.2
-1.4
0.0
0.0
-0.2
0.0
0.0
0.0
0.0
0.0
0.0
0.0
0.0
0.0
-0.2
-0.2
0.0
-0.6000000000000001
5.551115123125783e-17
-0.4000000000000001
-0.6000000000000001
-0.8
0.6000000000000001
-0.20000000000000007
-0.4000000000000001
1.9999999999999998
1.7999999999999998
-0.19999999999999996
-0.39999999999999997
0.8
-0.4000000000000001
-0.6000000000000001
-0.2
-0.2
-0.2
0.0
0.0
0.0
0.0
0.0
0.0
0.0
0.0
0.0
0.0
-0.4
0.0
-0.2
-1.0
-1.4
-3.2000000000000006
-5.551115123125783e-17
0.4000000000000001
5.551115123125783e-17
1.5999999999999999
0.8
-0.8
-0.8
1.4
-1.0
0.2
-0.8
-0.4
-0.4
-0.2
0.0
0.0
0.0
0.0
0.0
0.0
0.0
0.0
0.0
0.0
0.0
0.4
0.0
-0.20000000000000007
-1.7999999999999998
-0.6000000000000001
-1.7999999999999998
-0.4000000000000001
0.4000000000000001
1.0
1.4
0.6000000000000001
0.20000000000000007
-0.4
0.6000000000000001
-0.2
0.0
0.0
0.0
0.0
0.0
0.0
0.0
0.0
0.0
0.0
